digraph Tree {
node [shape=box, style="filled", color="black"] ;
0 [label="942421 <= 0.5\nentropy = 0.516\nsamples = 137930\nvalue = [122008, 15922]\nclass = Normal", fillcolor="#e89153"] ;
1 [label="request_method_POST <= 0.5\nentropy = 0.823\nsamples = 61777\nvalue = [45861, 15916]\nclass = Normal", fillcolor="#eead7e"] ;
0 -> 1 [labeldistance=2.5, labelangle=45, headlabel="True"] ;
2 [label="920440 <= 0.5\nentropy = 0.669\nsamples = 47398\nvalue = [39101, 8297]\nclass = Normal", fillcolor="#eb9c63"] ;
1 -> 2 ;
3 [label="920230 <= 0.5\nentropy = 0.606\nsamples = 45904\nvalue = [39094, 6810]\nclass = Normal", fillcolor="#ea975b"] ;
2 -> 3 ;
4 [label="(...)", fillcolor="#C0C0C0"] ;
3 -> 4 ;
115 [label="(...)", fillcolor="#C0C0C0"] ;
3 -> 115 ;
126 [label="942432 <= 0.5\nentropy = 0.043\nsamples = 1494\nvalue = [7, 1487]\nclass = Attack", fillcolor="#3a9de5"] ;
2 -> 126 ;
127 [label="(...)", fillcolor="#C0C0C0"] ;
126 -> 127 ;
128 [label="(...)", fillcolor="#C0C0C0"] ;
126 -> 128 ;
129 [label="931130 <= 0.5\nentropy = 0.997\nsamples = 14379\nvalue = [6760, 7619]\nclass = Attack", fillcolor="#e9f4fc"] ;
1 -> 129 ;
130 [label="942340 <= 0.5\nentropy = 0.879\nsamples = 10850\nvalue = [3233, 7617]\nclass = Attack", fillcolor="#8dc7f0"] ;
129 -> 130 ;
131 [label="(...)", fillcolor="#C0C0C0"] ;
130 -> 131 ;
220 [label="(...)", fillcolor="#C0C0C0"] ;
130 -> 220 ;
225 [label="942432 <= 0.5\nentropy = 0.007\nsamples = 3529\nvalue = [3527, 2]\nclass = Normal", fillcolor="#e58139"] ;
129 -> 225 ;
226 [label="(...)", fillcolor="#C0C0C0"] ;
225 -> 226 ;
231 [label="(...)", fillcolor="#C0C0C0"] ;
225 -> 231 ;
232 [label="920300 <= 0.5\nentropy = 0.001\nsamples = 76153\nvalue = [76147, 6]\nclass = Normal", fillcolor="#e58139"] ;
0 -> 232 [labeldistance=2.5, labelangle=-45, headlabel="False"] ;
233 [label="920320 <= 0.5\nentropy = 0.0\nsamples = 76149\nvalue = [76147, 2]\nclass = Normal", fillcolor="#e58139"] ;
232 -> 233 ;
234 [label="entropy = 0.0\nsamples = 76147\nvalue = [76147, 0]\nclass = Normal", fillcolor="#e58139"] ;
233 -> 234 ;
235 [label="entropy = 0.0\nsamples = 2\nvalue = [0, 2]\nclass = Attack", fillcolor="#399de5"] ;
233 -> 235 ;
236 [label="entropy = 0.0\nsamples = 4\nvalue = [0, 4]\nclass = Attack", fillcolor="#399de5"] ;
232 -> 236 ;
}