digraph Tree {
node [shape=box, style="filled", color="black"] ;
0 [label="942421 <= 0.5\nentropy = 1.0\nsamples = 182792\nvalue = [91396.0, 91396.0]\nclass = Normal", fillcolor="#ffffff"] ;
1 [label="request_method_GET <= 0.5\nentropy = 0.936\nsamples = 106611\nvalue = [49676.002, 91344.338]\nclass = Attack", fillcolor="#a5d2f3"] ;
0 -> 1 [labeldistance=2.5, labelangle=45, headlabel="True"] ;
2 [label="931130 <= 0.5\nentropy = 0.684\nsamples = 26091\nvalue = [9998.406, 44980.471]\nclass = Attack", fillcolor="#65b3eb"] ;
1 -> 2 ;
3 [label="920230 <= 0.5\nentropy = 0.615\nsamples = 22550\nvalue = [8059.52, 44974.731]\nclass = Attack", fillcolor="#5cafea"] ;
2 -> 3 ;
4 [label="request_method_OPTIONS <= 0.5\nentropy = 0.657\nsamples = 21562\nvalue = [8050.209, 39400.964]\nclass = Attack", fillcolor="#61b1ea"] ;
3 -> 4 ;
5 [label="942340 <= 0.5\nentropy = 0.64\nsamples = 20808\nvalue = [7637.238, 39400.964]\nclass = Attack", fillcolor="#5fb0ea"] ;
4 -> 5 ;
6 [label="942460 <= 0.5\nentropy = 0.621\nsamples = 19977\nvalue = [7184.831, 39372.263]\nclass = Attack", fillcolor="#5dafea"] ;
5 -> 6 ;
7 [label="920320 <= 0.5\nentropy = 0.661\nsamples = 19098\nvalue = [7156.35, 34625.089]\nclass = Attack", fillcolor="#62b1ea"] ;
6 -> 7 ;
8 [label="944130 <= 0.5\nentropy = 0.679\nsamples = 18758\nvalue = [7156.35, 32673.41]\nclass = Attack", fillcolor="#64b2eb"] ;
7 -> 8 ;
9 [label="942130 <= 0.5\nentropy = 0.697\nsamples = 18454\nvalue = [7156.35, 30928.379]\nclass = Attack", fillcolor="#67b4eb"] ;
8 -> 9 ;
10 [label="911100 <= 0.5\nentropy = 0.716\nsamples = 18146\nvalue = [7153.612, 29189.088]\nclass = Attack", fillcolor="#6ab5eb"] ;
9 -> 10 ;
11 [label="944300 <= 0.5\nentropy = 0.734\nsamples = 17855\nvalue = [7148.682, 27570.342]\nclass = Attack", fillcolor="#6cb6ec"] ;
10 -> 11 ;
12 [label="944120 <= 0.5\nentropy = 0.749\nsamples = 17621\nvalue = [7148.682, 26227.127]\nclass = Attack", fillcolor="#6fb8ec"] ;
11 -> 12 ;
13 [label="942480 <= 0.5\nentropy = 0.757\nsamples = 17507\nvalue = [7148.682, 25572.741]\nclass = Attack", fillcolor="#70b8ec"] ;
12 -> 13 ;
14 [label="942431 <= 0.5\nentropy = 0.765\nsamples = 17400\nvalue = [7148.682, 24958.536]\nclass = Attack", fillcolor="#72b9ec"] ;
13 -> 14 ;
15 [label="942110 <= 0.5\nentropy = 0.761\nsamples = 17216\nvalue = [7049.547, 24941.315]\nclass = Attack", fillcolor="#71b9ec"] ;
14 -> 15 ;
16 [label="920300 <= 0.5\nentropy = 0.765\nsamples = 17135\nvalue = [7040.784, 24568.2]\nclass = Attack", fillcolor="#72b9ec"] ;
15 -> 16 ;
17 [label="920420 <= 0.5\nentropy = 0.768\nsamples = 17097\nvalue = [7040.784, 24350.071]\nclass = Attack", fillcolor="#72b9ed"] ;
16 -> 17 ;
18 [label="944250 <= 0.5\nentropy = 0.767\nsamples = 17039\nvalue = [7009.017, 24350.071]\nclass = Attack", fillcolor="#72b9ec"] ;
17 -> 18 ;
19 [label="942330 <= 0.5\nentropy = 0.768\nsamples = 17014\nvalue = [7009.017, 24206.565]\nclass = Attack", fillcolor="#72b9ed"] ;
18 -> 19 ;
20 [label="944210 <= 0.5\nentropy = 0.77\nsamples = 16989\nvalue = [7009.017, 24063.059]\nclass = Attack", fillcolor="#73baed"] ;
19 -> 20 ;
21 [label="request_method_POST <= 0.5\nentropy = 0.772\nsamples = 16966\nvalue = [7009.017, 23931.034]\nclass = Attack", fillcolor="#73baed"] ;
20 -> 21 ;
22 [label="entropy = 0.0\nsamples = 35\nvalue = [19.17, 0.0]\nclass = Normal", fillcolor="#e58139"] ;
21 -> 22 ;
23 [label="942310 <= 0.5\nentropy = 0.771\nsamples = 16931\nvalue = [6989.847, 23931.034]\nclass = Attack", fillcolor="#73baed"] ;
21 -> 23 ;
24 [label="932190 <= 0.5\nentropy = 0.772\nsamples = 16914\nvalue = [6989.847, 23833.45]\nclass = Attack", fillcolor="#73baed"] ;
23 -> 24 ;
25 [label="950100 <= 0.5\nentropy = 0.77\nsamples = 16743\nvalue = [6906.048, 23730.126]\nclass = Attack", fillcolor="#73baed"] ;
24 -> 25 ;
26 [label="930120 <= 0.5\nentropy = 0.769\nsamples = 16724\nvalue = [6895.641, 23730.126]\nclass = Attack", fillcolor="#73b9ed"] ;
25 -> 26 ;
27 [label="942511 <= 0.5\nentropy = 0.769\nsamples = 16710\nvalue = [6887.973, 23730.126]\nclass = Attack", fillcolor="#72b9ed"] ;
26 -> 27 ;
28 [label="942200 <= 0.5\nentropy = 0.77\nsamples = 16700\nvalue = [6887.426, 23678.464]\nclass = Attack", fillcolor="#73baed"] ;
27 -> 28 ;
29 [label="200002 <= 0.5\nentropy = 0.77\nsamples = 16697\nvalue = [6887.426, 23661.243]\nclass = Attack", fillcolor="#73baed"] ;
28 -> 29 ;
30 [label="942490 <= 0.5\nentropy = 0.77\nsamples = 16695\nvalue = [6887.426, 23649.763]\nclass = Attack", fillcolor="#73baed"] ;
29 -> 30 ;
31 [label="entropy = 0.77\nsamples = 16691\nvalue = [6886.878, 23632.542]\nclass = Attack", fillcolor="#73baed"] ;
30 -> 31 ;
32 [label="entropy = 0.199\nsamples = 4\nvalue = [0.548, 17.221]\nclass = Attack", fillcolor="#3fa0e6"] ;
30 -> 32 ;
33 [label="entropy = 0.0\nsamples = 2\nvalue = [0.0, 11.48]\nclass = Attack", fillcolor="#399de5"] ;
29 -> 33 ;
34 [label="entropy = 0.0\nsamples = 3\nvalue = [0.0, 17.221]\nclass = Attack", fillcolor="#399de5"] ;
28 -> 34 ;
35 [label="entropy = 0.084\nsamples = 10\nvalue = [0.548, 51.662]\nclass = Attack", fillcolor="#3b9ee5"] ;
27 -> 35 ;
36 [label="entropy = 0.0\nsamples = 14\nvalue = [7.668, 0.0]\nclass = Normal", fillcolor="#e58139"] ;
26 -> 36 ;
37 [label="entropy = 0.0\nsamples = 19\nvalue = [10.406, 0.0]\nclass = Normal", fillcolor="#e58139"] ;
25 -> 37 ;
38 [label="942432 <= 0.5\nentropy = 0.992\nsamples = 171\nvalue = [83.799, 103.324]\nclass = Attack", fillcolor="#daecfa"] ;
24 -> 38 ;
39 [label="entropy = 0.0\nsamples = 16\nvalue = [0.0, 91.844]\nclass = Attack", fillcolor="#399de5"] ;
38 -> 39 ;
40 [label="942100 <= 0.5\nentropy = 0.531\nsamples = 155\nvalue = [83.799, 11.48]\nclass = Normal", fillcolor="#e99254"] ;
38 -> 40 ;
41 [label="entropy = 0.344\nsamples = 154\nvalue = [83.799, 5.74]\nclass = Normal", fillcolor="#e78a47"] ;
40 -> 41 ;
42 [label="entropy = 0.0\nsamples = 1\nvalue = [0.0, 5.74]\nclass = Attack", fillcolor="#399de5"] ;
40 -> 42 ;
43 [label="entropy = 0.0\nsamples = 17\nvalue = [0.0, 97.584]\nclass = Attack", fillcolor="#399de5"] ;
23 -> 43 ;
44 [label="entropy = 0.0\nsamples = 23\nvalue = [0.0, 132.025]\nclass = Attack", fillcolor="#399de5"] ;
20 -> 44 ;
45 [label="entropy = 0.0\nsamples = 25\nvalue = [0.0, 143.506]\nclass = Attack", fillcolor="#399de5"] ;
19 -> 45 ;
46 [label="entropy = 0.0\nsamples = 25\nvalue = [0.0, 143.506]\nclass = Attack", fillcolor="#399de5"] ;
18 -> 46 ;
47 [label="entropy = 0.0\nsamples = 58\nvalue = [31.767, 0.0]\nclass = Normal", fillcolor="#e58139"] ;
17 -> 47 ;
48 [label="entropy = 0.0\nsamples = 38\nvalue = [0.0, 218.129]\nclass = Attack", fillcolor="#399de5"] ;
16 -> 48 ;
49 [label="932160 <= 0.5\nentropy = 0.158\nsamples = 81\nvalue = [8.763, 373.115]\nclass = Attack", fillcolor="#3e9fe6"] ;
15 -> 49 ;
50 [label="942432 <= 0.5\nentropy = 0.109\nsamples = 75\nvalue = [5.477, 373.115]\nclass = Attack", fillcolor="#3c9ee5"] ;
49 -> 50 ;
51 [label="entropy = 0.132\nsamples = 61\nvalue = [5.477, 292.752]\nclass = Attack", fillcolor="#3d9fe5"] ;
50 -> 51 ;
52 [label="entropy = 0.0\nsamples = 14\nvalue = [0.0, 80.363]\nclass = Attack", fillcolor="#399de5"] ;
50 -> 52 ;
53 [label="entropy = -0.0\nsamples = 6\nvalue = [3.286, 0.0]\nclass = Normal", fillcolor="#e58139"] ;
49 -> 53 ;
54 [label="920300 <= 0.5\nentropy = 0.605\nsamples = 184\nvalue = [99.135, 17.221]\nclass = Normal", fillcolor="#ea975b"] ;
14 -> 54 ;
55 [label="entropy = 0.0\nsamples = 181\nvalue = [99.135, 0.0]\nclass = Normal", fillcolor="#e58139"] ;
54 -> 55 ;
56 [label="entropy = 0.0\nsamples = 3\nvalue = [0.0, 17.221]\nclass = Attack", fillcolor="#399de5"] ;
54 -> 56 ;
57 [label="entropy = 0.0\nsamples = 107\nvalue = [0.0, 614.205]\nclass = Attack", fillcolor="#399de5"] ;
13 -> 57 ;
58 [label="entropy = 0.0\nsamples = 114\nvalue = [0.0, 654.387]\nclass = Attack", fillcolor="#399de5"] ;
12 -> 58 ;
59 [label="entropy = 0.0\nsamples = 234\nvalue = [0.0, 1343.215]\nclass = Attack", fillcolor="#399de5"] ;
11 -> 59 ;
60 [label="942432 <= 0.5\nentropy = 0.03\nsamples = 291\nvalue = [4.929, 1618.746]\nclass = Attack", fillcolor="#3a9de5"] ;
10 -> 60 ;
61 [label="942110 <= 0.5\nentropy = 0.031\nsamples = 277\nvalue = [4.929, 1538.383]\nclass = Attack", fillcolor="#3a9de5"] ;
60 -> 61 ;
62 [label="entropy = 0.031\nsamples = 275\nvalue = [4.929, 1526.902]\nclass = Attack", fillcolor="#3a9de5"] ;
61 -> 62 ;
63 [label="entropy = 0.0\nsamples = 2\nvalue = [0.0, 11.48]\nclass = Attack", fillcolor="#399de5"] ;
61 -> 63 ;
64 [label="entropy = 0.0\nsamples = 14\nvalue = [0.0, 80.363]\nclass = Attack", fillcolor="#399de5"] ;
60 -> 64 ;
65 [label="921180 <= 0.5\nentropy = 0.017\nsamples = 308\nvalue = [2.739, 1739.291]\nclass = Attack", fillcolor="#399de5"] ;
9 -> 65 ;
66 [label="942390 <= 0.5\nentropy = 0.008\nsamples = 305\nvalue = [1.095, 1739.291]\nclass = Attack", fillcolor="#399de5"] ;
65 -> 66 ;
67 [label="entropy = 0.0\nsamples = 303\nvalue = [0.0, 1739.291]\nclass = Attack", fillcolor="#399de5"] ;
66 -> 67 ;
68 [label="entropy = 0.0\nsamples = 2\nvalue = [1.095, 0.0]\nclass = Normal", fillcolor="#e58139"] ;
66 -> 68 ;
69 [label="entropy = 0.0\nsamples = 3\nvalue = [1.643, 0.0]\nclass = Normal", fillcolor="#e58139"] ;
65 -> 69 ;
70 [label="entropy = 0.0\nsamples = 304\nvalue = [0.0, 1745.031]\nclass = Attack", fillcolor="#399de5"] ;
8 -> 70 ;
71 [label="entropy = 0.0\nsamples = 340\nvalue = [0.0, 1951.679]\nclass = Attack", fillcolor="#399de5"] ;
7 -> 71 ;
72 [label="942440 <= 0.5\nentropy = 0.053\nsamples = 879\nvalue = [28.481, 4747.173]\nclass = Attack", fillcolor="#3a9ee5"] ;
6 -> 72 ;
73 [label="932100 <= 0.5\nentropy = 0.142\nsamples = 288\nvalue = [27.933, 1360.435]\nclass = Attack", fillcolor="#3d9fe6"] ;
72 -> 73 ;
74 [label="941100 <= 0.5\nentropy = 0.108\nsamples = 273\nvalue = [19.717, 1360.435]\nclass = Attack", fillcolor="#3c9ee5"] ;
73 -> 74 ;
75 [label="921180 <= 0.5\nentropy = 0.273\nsamples = 106\nvalue = [19.717, 401.816]\nclass = Attack", fillcolor="#43a2e6"] ;
74 -> 75 ;
76 [label="932160 <= 0.5\nentropy = 0.233\nsamples = 99\nvalue = [15.884, 401.816]\nclass = Attack", fillcolor="#41a1e6"] ;
75 -> 76 ;
77 [label="942431 <= 0.5\nentropy = 0.174\nsamples = 87\nvalue = [10.406, 390.336]\nclass = Attack", fillcolor="#3ea0e6"] ;
76 -> 77 ;
78 [label="920320 <= 0.5\nentropy = 0.262\nsamples = 58\nvalue = [10.406, 223.869]\nclass = Attack", fillcolor="#42a2e6"] ;
77 -> 78 ;
79 [label="942432 <= 0.5\nentropy = 0.315\nsamples = 49\nvalue = [10.406, 172.207]\nclass = Attack", fillcolor="#45a3e7"] ;
78 -> 79 ;
80 [label="entropy = 0.267\nsamples = 42\nvalue = [7.668, 160.727]\nclass = Attack", fillcolor="#42a2e6"] ;
79 -> 80 ;
81 [label="932150 <= 0.5\nentropy = 0.707\nsamples = 7\nvalue = [2.739, 11.48]\nclass = Attack", fillcolor="#68b4eb"] ;
79 -> 81 ;
82 [label="920274 <= 0.5\nentropy = 0.908\nsamples = 6\nvalue = [2.739, 5.74]\nclass = Attack", fillcolor="#97ccf1"] ;
81 -> 82 ;
83 [label="entropy = 0.85\nsamples = 5\nvalue = [2.191, 5.74]\nclass = Attack", fillcolor="#85c2ef"] ;
82 -> 83 ;
84 [label="entropy = 0.0\nsamples = 1\nvalue = [0.548, 0.0]\nclass = Normal", fillcolor="#e58139"] ;
82 -> 84 ;
85 [label="entropy = 0.0\nsamples = 1\nvalue = [0.0, 5.74]\nclass = Attack", fillcolor="#399de5"] ;
81 -> 85 ;
86 [label="entropy = 0.0\nsamples = 9\nvalue = [0.0, 51.662]\nclass = Attack", fillcolor="#399de5"] ;
78 -> 86 ;
87 [label="entropy = -0.0\nsamples = 29\nvalue = [0.0, 166.467]\nclass = Attack", fillcolor="#399de5"] ;
77 -> 87 ;
88 [label="942370 <= 0.5\nentropy = 0.908\nsamples = 12\nvalue = [5.477, 11.48]\nclass = Attack", fillcolor="#97ccf1"] ;
76 -> 88 ;
89 [label="entropy = 0.0\nsamples = 2\nvalue = [0.0, 11.48]\nclass = Attack", fillcolor="#399de5"] ;
88 -> 89 ;
90 [label="entropy = -0.0\nsamples = 10\nvalue = [5.477, 0.0]\nclass = Normal", fillcolor="#e58139"] ;
88 -> 90 ;
91 [label="entropy = -0.0\nsamples = 7\nvalue = [3.834, 0.0]\nclass = Normal", fillcolor="#e58139"] ;
75 -> 91 ;
92 [label="entropy = -0.0\nsamples = 167\nvalue = [0.0, 958.619]\nclass = Attack", fillcolor="#399de5"] ;
74 -> 92 ;
93 [label="entropy = 0.0\nsamples = 15\nvalue = [8.216, 0.0]\nclass = Normal", fillcolor="#e58139"] ;
73 -> 93 ;
94 [label="941340 <= 0.5\nentropy = 0.002\nsamples = 591\nvalue = [0.548, 3386.738]\nclass = Attack", fillcolor="#399de5"] ;
72 -> 94 ;
95 [label="entropy = 0.0\nsamples = 590\nvalue = [0.0, 3386.738]\nclass = Attack", fillcolor="#399de5"] ;
94 -> 95 ;
96 [label="entropy = 0.0\nsamples = 1\nvalue = [0.548, 0.0]\nclass = Normal", fillcolor="#e58139"] ;
94 -> 96 ;
97 [label="920320 <= 0.5\nentropy = 0.326\nsamples = 831\nvalue = [452.407, 28.701]\nclass = Normal", fillcolor="#e78946"] ;
5 -> 97 ;
98 [label="942430 <= 0.5\nentropy = 0.097\nsamples = 827\nvalue = [452.407, 5.74]\nclass = Normal", fillcolor="#e5833c"] ;
97 -> 98 ;
99 [label="entropy = 0.0\nsamples = 1\nvalue = [0.0, 5.74]\nclass = Attack", fillcolor="#399de5"] ;
98 -> 99 ;
100 [label="entropy = -0.0\nsamples = 826\nvalue = [452.407, 0.0]\nclass = Normal", fillcolor="#e58139"] ;
98 -> 100 ;
101 [label="entropy = -0.0\nsamples = 4\nvalue = [0.0, 22.961]\nclass = Attack", fillcolor="#399de5"] ;
97 -> 101 ;
102 [label="entropy = 0.0\nsamples = 754\nvalue = [412.972, 0.0]\nclass = Normal", fillcolor="#e58139"] ;
4 -> 102 ;
103 [label="932190 <= 0.5\nentropy = 0.018\nsamples = 988\nvalue = [9.311, 5573.767]\nclass = Attack", fillcolor="#399de5"] ;
3 -> 103 ;
104 [label="entropy = 0.0\nsamples = 971\nvalue = [0.0, 5573.767]\nclass = Attack", fillcolor="#399de5"] ;
103 -> 104 ;
105 [label="entropy = -0.0\nsamples = 17\nvalue = [9.311, 0.0]\nclass = Normal", fillcolor="#e58139"] ;
103 -> 105 ;
106 [label="942432 <= 0.5\nentropy = 0.029\nsamples = 3541\nvalue = [1938.886, 5.74]\nclass = Normal", fillcolor="#e5813a"] ;
2 -> 106 ;
107 [label="950100 <= 0.5\nentropy = 0.038\nsamples = 2589\nvalue = [1417.468, 5.74]\nclass = Normal", fillcolor="#e5823a"] ;
106 -> 107 ;
108 [label="request_method_OPTIONS <= 0.5\nentropy = 0.038\nsamples = 2546\nvalue = [1393.916, 5.74]\nclass = Normal", fillcolor="#e5823a"] ;
107 -> 108 ;
109 [label="942100 <= 0.5\nentropy = 0.038\nsamples = 2545\nvalue = [1393.369, 5.74]\nclass = Normal", fillcolor="#e5823a"] ;
108 -> 109 ;
110 [label="entropy = 0.038\nsamples = 2544\nvalue = [1392.821, 5.74]\nclass = Normal", fillcolor="#e5823a"] ;
109 -> 110 ;
111 [label="entropy = 0.0\nsamples = 1\nvalue = [0.548, 0.0]\nclass = Normal", fillcolor="#e58139"] ;
109 -> 111 ;
112 [label="entropy = 0.0\nsamples = 1\nvalue = [0.548, 0.0]\nclass = Normal", fillcolor="#e58139"] ;
108 -> 112 ;
113 [label="entropy = 0.0\nsamples = 43\nvalue = [23.551, 0.0]\nclass = Normal", fillcolor="#e58139"] ;
107 -> 113 ;
114 [label="entropy = 0.0\nsamples = 952\nvalue = [521.418, 0.0]\nclass = Normal", fillcolor="#e58139"] ;
106 -> 114 ;
115 [label="920440 <= 0.5\nentropy = 0.996\nsamples = 80520\nvalue = [39677.596, 46363.867]\nclass = Attack", fillcolor="#e2f1fb"] ;
1 -> 115 ;
116 [label="920230 <= 0.5\nentropy = 1.0\nsamples = 79064\nvalue = [39676.5, 38017.567]\nclass = Normal", fillcolor="#fefaf7"] ;
115 -> 116 ;
117 [label="942460 <= 0.5\nentropy = 0.996\nsamples = 78098\nvalue = [39524.785, 34062.546]\nclass = Normal", fillcolor="#fbeee4"] ;
116 -> 117 ;
118 [label="942130 <= 0.5\nentropy = 0.989\nsamples = 76935\nvalue = [39229.571, 30480.641]\nclass = Normal", fillcolor="#f9e3d3"] ;
117 -> 118 ;
119 [label="920300 <= 0.5\nentropy = 0.984\nsamples = 76688\nvalue = [39216.426, 29200.569]\nclass = Normal", fillcolor="#f8dfcc"] ;
118 -> 119 ;
120 [label="920500 <= 0.5\nentropy = 0.981\nsamples = 76528\nvalue = [39208.758, 28362.494]\nclass = Normal", fillcolor="#f8dcc8"] ;
119 -> 120 ;
121 [label="942432 <= 0.5\nentropy = 0.979\nsamples = 76417\nvalue = [39208.758, 27725.328]\nclass = Normal", fillcolor="#f7dac5"] ;
120 -> 121 ;
122 [label="942110 <= 0.5\nentropy = 0.987\nsamples = 67995\nvalue = [34723.031, 26393.594]\nclass = Normal", fillcolor="#f9e1d0"] ;
121 -> 122 ;
123 [label="942480 <= 0.5\nentropy = 0.985\nsamples = 67938\nvalue = [34721.936, 26077.881]\nclass = Normal", fillcolor="#f9e0ce"] ;
122 -> 123 ;
124 [label="932190 <= 0.5\nentropy = 0.985\nsamples = 67917\nvalue = [34721.936, 25957.337]\nclass = Normal", fillcolor="#f8dfcd"] ;
123 -> 124 ;
125 [label="920320 <= 0.5\nentropy = 0.985\nsamples = 67906\nvalue = [34721.936, 25894.194]\nclass = Normal", fillcolor="#f8dfcd"] ;
124 -> 125 ;
126 [label="942370 <= 0.5\nentropy = 0.984\nsamples = 67890\nvalue = [34719.745, 25825.311]\nclass = Normal", fillcolor="#f8dfcc"] ;
125 -> 126 ;
127 [label="934100 <= 0.5\nentropy = 0.985\nsamples = 67749\nvalue = [34642.518, 25825.311]\nclass = Normal", fillcolor="#f8dfcd"] ;
126 -> 127 ;
128 [label="921180 <= 0.5\nentropy = 0.984\nsamples = 67741\nvalue = [34642.518, 25779.389]\nclass = Normal", fillcolor="#f8dfcc"] ;
127 -> 128 ;
129 [label="950100 <= 0.5\nentropy = 0.985\nsamples = 67640\nvalue = [34587.2, 25779.389]\nclass = Normal", fillcolor="#f8dfcd"] ;
128 -> 129 ;
130 [label="941110 <= 0.5\nentropy = 0.985\nsamples = 67573\nvalue = [34550.503, 25779.389]\nclass = Normal", fillcolor="#f8dfcd"] ;
129 -> 130 ;
131 [label="942200 <= 0.5\nentropy = 0.985\nsamples = 67570\nvalue = [34550.503, 25762.169]\nclass = Normal", fillcolor="#f8dfcd"] ;
130 -> 131 ;
132 [label="932140 <= 0.5\nentropy = 0.985\nsamples = 67568\nvalue = [34550.503, 25750.688]\nclass = Normal", fillcolor="#f8dfcd"] ;
131 -> 132 ;
133 [label="942260 <= 0.5\nentropy = 0.985\nsamples = 67566\nvalue = [34550.503, 25739.208]\nclass = Normal", fillcolor="#f8dfcd"] ;
132 -> 133 ;
134 [label="920274 <= 0.5\nentropy = 0.984\nsamples = 67564\nvalue = [34550.503, 25727.727]\nclass = Normal", fillcolor="#f8dfcc"] ;
133 -> 134 ;
135 [label="931130 <= 0.5\nentropy = 0.985\nsamples = 67535\nvalue = [34534.62, 25727.727]\nclass = Normal", fillcolor="#f8dfcd"] ;
134 -> 135 ;
136 [label="943110 <= 0.5\nentropy = 0.985\nsamples = 67445\nvalue = [34486.421, 25716.247]\nclass = Normal", fillcolor="#f8dfcd"] ;
135 -> 136 ;
137 [label="942490 <= 0.5\nentropy = 0.985\nsamples = 67427\nvalue = [34476.563, 25716.247]\nclass = Normal", fillcolor="#f8dfcd"] ;
136 -> 137 ;
138 [label="942440 <= 0.5\nentropy = 0.985\nsamples = 67426\nvalue = [34476.563, 25710.506]\nclass = Normal", fillcolor="#f8dfcd"] ;
137 -> 138 ;
139 [label="920350 <= 0.5\nentropy = 0.985\nsamples = 67425\nvalue = [34476.563, 25704.766]\nclass = Normal", fillcolor="#f8dfcd"] ;
138 -> 139 ;
140 [label="953120 <= 0.5\nentropy = 0.985\nsamples = 67420\nvalue = [34473.824, 25704.766]\nclass = Normal", fillcolor="#f8dfcd"] ;
139 -> 140 ;
141 [label="921130 <= 0.5\nentropy = 0.985\nsamples = 67415\nvalue = [34471.086, 25704.766]\nclass = Normal", fillcolor="#f8dfcd"] ;
140 -> 141 ;
142 [label="951120 <= 0.5\nentropy = 0.985\nsamples = 67412\nvalue = [34469.442, 25704.766]\nclass = Normal", fillcolor="#f8dfcd"] ;
141 -> 142 ;
143 [label="entropy = 0.985\nsamples = 67409\nvalue = [34467.799, 25704.766]\nclass = Normal", fillcolor="#f8dfcd"] ;
142 -> 143 ;
144 [label="entropy = 0.0\nsamples = 3\nvalue = [1.643, 0.0]\nclass = Normal", fillcolor="#e58139"] ;
142 -> 144 ;
145 [label="entropy = 0.0\nsamples = 3\nvalue = [1.643, 0.0]\nclass = Normal", fillcolor="#e58139"] ;
141 -> 145 ;
146 [label="entropy = 0.0\nsamples = 5\nvalue = [2.739, 0.0]\nclass = Normal", fillcolor="#e58139"] ;
140 -> 146 ;
147 [label="entropy = 0.0\nsamples = 5\nvalue = [2.739, 0.0]\nclass = Normal", fillcolor="#e58139"] ;
139 -> 147 ;
148 [label="entropy = 0.0\nsamples = 1\nvalue = [0.0, 5.74]\nclass = Attack", fillcolor="#399de5"] ;
138 -> 148 ;
149 [label="entropy = 0.0\nsamples = 1\nvalue = [0.0, 5.74]\nclass = Attack", fillcolor="#399de5"] ;
137 -> 149 ;
150 [label="entropy = 0.0\nsamples = 18\nvalue = [9.859, 0.0]\nclass = Normal", fillcolor="#e58139"] ;
136 -> 150 ;
151 [label="931110 <= 0.5\nentropy = 0.706\nsamples = 90\nvalue = [48.198, 11.48]\nclass = Normal", fillcolor="#eb9f68"] ;
135 -> 151 ;
152 [label="931100 <= 0.5\nentropy = 0.489\nsamples = 89\nvalue = [48.198, 5.74]\nclass = Normal", fillcolor="#e89051"] ;
151 -> 152 ;
153 [label="entropy = 0.0\nsamples = 88\nvalue = [48.198, 0.0]\nclass = Normal", fillcolor="#e58139"] ;
152 -> 153 ;
154 [label="entropy = 0.0\nsamples = 1\nvalue = [0.0, 5.74]\nclass = Attack", fillcolor="#399de5"] ;
152 -> 154 ;
155 [label="entropy = 0.0\nsamples = 1\nvalue = [0.0, 5.74]\nclass = Attack", fillcolor="#399de5"] ;
151 -> 155 ;
156 [label="entropy = 0.0\nsamples = 29\nvalue = [15.884, 0.0]\nclass = Normal", fillcolor="#e58139"] ;
134 -> 156 ;
157 [label="entropy = 0.0\nsamples = 2\nvalue = [0.0, 11.48]\nclass = Attack", fillcolor="#399de5"] ;
133 -> 157 ;
158 [label="entropy = 0.0\nsamples = 2\nvalue = [0.0, 11.48]\nclass = Attack", fillcolor="#399de5"] ;
132 -> 158 ;
159 [label="entropy = 0.0\nsamples = 2\nvalue = [0.0, 11.48]\nclass = Attack", fillcolor="#399de5"] ;
131 -> 159 ;
160 [label="entropy = 0.0\nsamples = 3\nvalue = [0.0, 17.221]\nclass = Attack", fillcolor="#399de5"] ;
130 -> 160 ;
161 [label="entropy = 0.0\nsamples = 67\nvalue = [36.696, 0.0]\nclass = Normal", fillcolor="#e58139"] ;
129 -> 161 ;
162 [label="entropy = 0.0\nsamples = 101\nvalue = [55.318, 0.0]\nclass = Normal", fillcolor="#e58139"] ;
128 -> 162 ;
163 [label="entropy = 0.0\nsamples = 8\nvalue = [0.0, 45.922]\nclass = Attack", fillcolor="#399de5"] ;
127 -> 163 ;
164 [label="entropy = 0.0\nsamples = 141\nvalue = [77.227, 0.0]\nclass = Normal", fillcolor="#e58139"] ;
126 -> 164 ;
165 [label="950100 <= 0.5\nentropy = 0.199\nsamples = 16\nvalue = [2.191, 68.883]\nclass = Attack", fillcolor="#3fa0e6"] ;
125 -> 165 ;
166 [label="930100 <= 0.5\nentropy = 0.066\nsamples = 13\nvalue = [0.548, 68.883]\nclass = Attack", fillcolor="#3b9ee5"] ;
165 -> 166 ;
167 [label="942120 <= 0.5\nentropy = 0.084\nsamples = 10\nvalue = [0.548, 51.662]\nclass = Attack", fillcolor="#3b9ee5"] ;
166 -> 167 ;
168 [label="941101 <= 0.5\nentropy = 0.103\nsamples = 8\nvalue = [0.548, 40.182]\nclass = Attack", fillcolor="#3c9ee5"] ;
167 -> 168 ;
169 [label="930120 <= 0.5\nentropy = 0.134\nsamples = 6\nvalue = [0.548, 28.701]\nclass = Attack", fillcolor="#3d9fe5"] ;
168 -> 169 ;
170 [label="942220 <= 0.5\nentropy = 0.199\nsamples = 4\nvalue = [0.548, 17.221]\nclass = Attack", fillcolor="#3fa0e6"] ;
169 -> 170 ;
171 [label="942470 <= 0.5\nentropy = 0.267\nsamples = 3\nvalue = [0.548, 11.48]\nclass = Attack", fillcolor="#42a2e6"] ;
170 -> 171 ;
172 [label="942140 <= 0.5\nentropy = 0.427\nsamples = 2\nvalue = [0.548, 5.74]\nclass = Attack", fillcolor="#4ca6e7"] ;
171 -> 172 ;
173 [label="entropy = 0.0\nsamples = 1\nvalue = [0.548, 0.0]\nclass = Normal", fillcolor="#e58139"] ;
172 -> 173 ;
174 [label="entropy = 0.0\nsamples = 1\nvalue = [0.0, 5.74]\nclass = Attack", fillcolor="#399de5"] ;
172 -> 174 ;
175 [label="entropy = 0.0\nsamples = 1\nvalue = [0.0, 5.74]\nclass = Attack", fillcolor="#399de5"] ;
171 -> 175 ;
176 [label="entropy = 0.0\nsamples = 1\nvalue = [0.0, 5.74]\nclass = Attack", fillcolor="#399de5"] ;
170 -> 176 ;
177 [label="entropy = 0.0\nsamples = 2\nvalue = [0.0, 11.48]\nclass = Attack", fillcolor="#399de5"] ;
169 -> 177 ;
178 [label="entropy = 0.0\nsamples = 2\nvalue = [0.0, 11.48]\nclass = Attack", fillcolor="#399de5"] ;
168 -> 178 ;
179 [label="entropy = 0.0\nsamples = 2\nvalue = [0.0, 11.48]\nclass = Attack", fillcolor="#399de5"] ;
167 -> 179 ;
180 [label="entropy = 0.0\nsamples = 3\nvalue = [0.0, 17.221]\nclass = Attack", fillcolor="#399de5"] ;
166 -> 180 ;
181 [label="entropy = -0.0\nsamples = 3\nvalue = [1.643, 0.0]\nclass = Normal", fillcolor="#e58139"] ;
165 -> 181 ;
182 [label="entropy = 0.0\nsamples = 11\nvalue = [0.0, 63.143]\nclass = Attack", fillcolor="#399de5"] ;
124 -> 182 ;
183 [label="entropy = 0.0\nsamples = 21\nvalue = [0.0, 120.545]\nclass = Attack", fillcolor="#399de5"] ;
123 -> 183 ;
184 [label="930120 <= 0.5\nentropy = 0.033\nsamples = 57\nvalue = [1.095, 315.713]\nclass = Attack", fillcolor="#3a9de5"] ;
122 -> 184 ;
185 [label="942360 <= 0.5\nentropy = 0.018\nsamples = 56\nvalue = [0.548, 315.713]\nclass = Attack", fillcolor="#399de5"] ;
184 -> 185 ;
186 [label="920320 <= 0.5\nentropy = 0.025\nsamples = 39\nvalue = [0.548, 218.129]\nclass = Attack", fillcolor="#399de5"] ;
185 -> 186 ;
187 [label="entropy = 0.026\nsamples = 37\nvalue = [0.548, 206.648]\nclass = Attack", fillcolor="#3a9de5"] ;
186 -> 187 ;
188 [label="entropy = 0.0\nsamples = 2\nvalue = [0.0, 11.48]\nclass = Attack", fillcolor="#399de5"] ;
186 -> 188 ;
189 [label="entropy = 0.0\nsamples = 17\nvalue = [0.0, 97.584]\nclass = Attack", fillcolor="#399de5"] ;
185 -> 189 ;
190 [label="entropy = -0.0\nsamples = 1\nvalue = [0.548, 0.0]\nclass = Normal", fillcolor="#e58139"] ;
184 -> 190 ;
191 [label="920220 <= 0.5\nentropy = 0.776\nsamples = 8422\nvalue = [4485.727, 1331.734]\nclass = Normal", fillcolor="#eda674"] ;
121 -> 191 ;
192 [label="920320 <= 0.5\nentropy = 0.648\nsamples = 8328\nvalue = [4476.416, 889.736]\nclass = Normal", fillcolor="#ea9a60"] ;
191 -> 192 ;
193 [label="932140 <= 0.5\nentropy = 0.624\nsamples = 8317\nvalue = [4476.416, 826.594]\nclass = Normal", fillcolor="#ea985e"] ;
192 -> 193 ;
194 [label="942511 <= 0.5\nentropy = 0.606\nsamples = 8309\nvalue = [4476.416, 780.672]\nclass = Normal", fillcolor="#ea975c"] ;
193 -> 194 ;
195 [label="942431 <= 0.5\nentropy = 0.587\nsamples = 8300\nvalue = [4475.868, 734.75]\nclass = Normal", fillcolor="#e9965a"] ;
194 -> 195 ;
196 [label="942310 <= 0.5\nentropy = 0.622\nsamples = 7333\nvalue = [3947.33, 723.269]\nclass = Normal", fillcolor="#ea985d"] ;
195 -> 196 ;
197 [label="932190 <= 0.5\nentropy = 0.614\nsamples = 7330\nvalue = [3947.33, 706.049]\nclass = Normal", fillcolor="#ea985c"] ;
196 -> 197 ;
198 [label="934100 <= 0.5\nentropy = 0.605\nsamples = 7304\nvalue = [3935.281, 683.088]\nclass = Normal", fillcolor="#ea975b"] ;
197 -> 198 ;
199 [label="931110 <= 0.5\nentropy = 0.599\nsamples = 7302\nvalue = [3935.281, 671.607]\nclass = Normal", fillcolor="#e9975b"] ;
198 -> 199 ;
200 [label="931130 <= 0.5\nentropy = 0.594\nsamples = 7300\nvalue = [3935.281, 660.127]\nclass = Normal", fillcolor="#e9965a"] ;
199 -> 200 ;
201 [label="942260 <= 0.5\nentropy = 0.614\nsamples = 6850\nvalue = [3688.812, 660.127]\nclass = Normal", fillcolor="#ea985c"] ;
200 -> 201 ;
202 [label="942200 <= 0.5\nentropy = 0.609\nsamples = 6848\nvalue = [3688.812, 648.646]\nclass = Normal", fillcolor="#ea975c"] ;
201 -> 202 ;
203 [label="933100 <= 0.5\nentropy = 0.606\nsamples = 6847\nvalue = [3688.812, 642.906]\nclass = Normal", fillcolor="#ea975c"] ;
202 -> 203 ;
204 [label="942340 <= 0.5\nentropy = 0.603\nsamples = 6846\nvalue = [3688.812, 637.166]\nclass = Normal", fillcolor="#e9975b"] ;
203 -> 204 ;
205 [label="942440 <= 0.5\nentropy = 0.6\nsamples = 6845\nvalue = [3688.812, 631.426]\nclass = Normal", fillcolor="#e9975b"] ;
204 -> 205 ;
206 [label="942110 <= 0.5\nentropy = 0.596\nsamples = 6809\nvalue = [3670.19, 619.945]\nclass = Normal", fillcolor="#e9965a"] ;
205 -> 206 ;
207 [label="921180 <= 0.5\nentropy = 0.594\nsamples = 6791\nvalue = [3660.879, 614.205]\nclass = Normal", fillcolor="#e9965a"] ;
206 -> 207 ;
208 [label="920274 <= 0.5\nentropy = 0.594\nsamples = 6779\nvalue = [3654.306, 614.205]\nclass = Normal", fillcolor="#e9965a"] ;
207 -> 208 ;
209 [label="930100 <= 0.5\nentropy = 0.595\nsamples = 6772\nvalue = [3650.472, 614.205]\nclass = Normal", fillcolor="#e9965a"] ;
208 -> 209 ;
210 [label="entropy = 0.595\nsamples = 6771\nvalue = [3649.925, 614.205]\nclass = Normal", fillcolor="#e9965a"] ;
209 -> 210 ;
211 [label="entropy = -0.0\nsamples = 1\nvalue = [0.548, 0.0]\nclass = Normal", fillcolor="#e58139"] ;
209 -> 211 ;
212 [label="entropy = -0.0\nsamples = 7\nvalue = [3.834, 0.0]\nclass = Normal", fillcolor="#e58139"] ;
208 -> 212 ;
213 [label="entropy = -0.0\nsamples = 12\nvalue = [6.572, 0.0]\nclass = Normal", fillcolor="#e58139"] ;
207 -> 213 ;
214 [label="entropy = 0.959\nsamples = 18\nvalue = [9.311, 5.74]\nclass = Normal", fillcolor="#f5cfb3"] ;
206 -> 214 ;
215 [label="930120 <= 0.5\nentropy = 0.959\nsamples = 36\nvalue = [18.622, 11.48]\nclass = Normal", fillcolor="#f5cfb3"] ;
205 -> 215 ;
216 [label="entropy = 0.964\nsamples = 35\nvalue = [18.074, 11.48]\nclass = Normal", fillcolor="#f6d1b7"] ;
215 -> 216 ;
217 [label="entropy = 0.0\nsamples = 1\nvalue = [0.548, 0.0]\nclass = Normal", fillcolor="#e58139"] ;
215 -> 217 ;
218 [label="entropy = 0.0\nsamples = 1\nvalue = [0.0, 5.74]\nclass = Attack", fillcolor="#399de5"] ;
204 -> 218 ;
219 [label="entropy = 0.0\nsamples = 1\nvalue = [0.0, 5.74]\nclass = Attack", fillcolor="#399de5"] ;
203 -> 219 ;
220 [label="entropy = 0.0\nsamples = 1\nvalue = [0.0, 5.74]\nclass = Attack", fillcolor="#399de5"] ;
202 -> 220 ;
221 [label="entropy = 0.0\nsamples = 2\nvalue = [0.0, 11.48]\nclass = Attack", fillcolor="#399de5"] ;
201 -> 221 ;
222 [label="entropy = -0.0\nsamples = 450\nvalue = [246.469, 0.0]\nclass = Normal", fillcolor="#e58139"] ;
200 -> 222 ;
223 [label="entropy = 0.0\nsamples = 2\nvalue = [0.0, 11.48]\nclass = Attack", fillcolor="#399de5"] ;
199 -> 223 ;
224 [label="entropy = 0.0\nsamples = 2\nvalue = [0.0, 11.48]\nclass = Attack", fillcolor="#399de5"] ;
198 -> 224 ;
225 [label="931130 <= 0.5\nentropy = 0.929\nsamples = 26\nvalue = [12.05, 22.961]\nclass = Attack", fillcolor="#a1d0f3"] ;
197 -> 225 ;
226 [label="entropy = 0.0\nsamples = 4\nvalue = [0.0, 22.961]\nclass = Attack", fillcolor="#399de5"] ;
225 -> 226 ;
227 [label="entropy = 0.0\nsamples = 22\nvalue = [12.05, 0.0]\nclass = Normal", fillcolor="#e58139"] ;
225 -> 227 ;
228 [label="entropy = 0.0\nsamples = 3\nvalue = [0.0, 17.221]\nclass = Attack", fillcolor="#399de5"] ;
196 -> 228 ;
229 [label="932115 <= 0.5\nentropy = 0.148\nsamples = 967\nvalue = [528.538, 11.48]\nclass = Normal", fillcolor="#e6843d"] ;
195 -> 229 ;
230 [label="entropy = 0.0\nsamples = 965\nvalue = [528.538, 0.0]\nclass = Normal", fillcolor="#e58139"] ;
229 -> 230 ;
231 [label="entropy = -0.0\nsamples = 2\nvalue = [0.0, 11.48]\nclass = Attack", fillcolor="#399de5"] ;
229 -> 231 ;
232 [label="942430 <= 0.5\nentropy = 0.092\nsamples = 9\nvalue = [0.548, 45.922]\nclass = Attack", fillcolor="#3b9ee5"] ;
194 -> 232 ;
233 [label="entropy = 0.0\nsamples = 8\nvalue = [0.0, 45.922]\nclass = Attack", fillcolor="#399de5"] ;
232 -> 233 ;
234 [label="entropy = -0.0\nsamples = 1\nvalue = [0.548, 0.0]\nclass = Normal", fillcolor="#e58139"] ;
232 -> 234 ;
235 [label="entropy = 0.0\nsamples = 8\nvalue = [0.0, 45.922]\nclass = Attack", fillcolor="#399de5"] ;
193 -> 235 ;
236 [label="entropy = 0.0\nsamples = 11\nvalue = [0.0, 63.143]\nclass = Attack", fillcolor="#399de5"] ;
192 -> 236 ;
237 [label="931130 <= 0.5\nentropy = 0.145\nsamples = 94\nvalue = [9.311, 441.998]\nclass = Attack", fillcolor="#3d9fe6"] ;
191 -> 237 ;
238 [label="932190 <= 0.5\nentropy = 0.014\nsamples = 78\nvalue = [0.548, 441.998]\nclass = Attack", fillcolor="#399de5"] ;
237 -> 238 ;
239 [label="entropy = 0.0\nsamples = 77\nvalue = [0.0, 441.998]\nclass = Attack", fillcolor="#399de5"] ;
238 -> 239 ;
240 [label="entropy = -0.0\nsamples = 1\nvalue = [0.548, 0.0]\nclass = Normal", fillcolor="#e58139"] ;
238 -> 240 ;
241 [label="entropy = -0.0\nsamples = 16\nvalue = [8.763, 0.0]\nclass = Normal", fillcolor="#e58139"] ;
237 -> 241 ;
242 [label="entropy = 0.0\nsamples = 111\nvalue = [0.0, 637.166]\nclass = Attack", fillcolor="#399de5"] ;
120 -> 242 ;
243 [label="942432 <= 0.5\nentropy = 0.075\nsamples = 160\nvalue = [7.668, 838.074]\nclass = Attack", fillcolor="#3b9ee5"] ;
119 -> 243 ;
244 [label="933110 <= 0.5\nentropy = 0.107\nsamples = 107\nvalue = [7.668, 533.842]\nclass = Attack", fillcolor="#3c9ee5"] ;
243 -> 244 ;
245 [label="933150 <= 0.5\nentropy = 0.127\nsamples = 89\nvalue = [7.668, 430.518]\nclass = Attack", fillcolor="#3d9fe5"] ;
244 -> 245 ;
246 [label="941160 <= 0.5\nentropy = 0.149\nsamples = 75\nvalue = [7.668, 350.154]\nclass = Attack", fillcolor="#3d9fe6"] ;
245 -> 246 ;
247 [label="931130 <= 0.5\nentropy = 0.182\nsamples = 61\nvalue = [7.668, 269.791]\nclass = Attack", fillcolor="#3fa0e6"] ;
246 -> 247 ;
248 [label="931120 <= 0.5\nentropy = 0.227\nsamples = 49\nvalue = [7.668, 200.908]\nclass = Attack", fillcolor="#41a1e6"] ;
247 -> 248 ;
249 [label="941180 <= 0.5\nentropy = 0.267\nsamples = 42\nvalue = [7.668, 160.727]\nclass = Attack", fillcolor="#42a2e6"] ;
248 -> 249 ;
250 [label="921190 <= 0.5\nentropy = 0.307\nsamples = 37\nvalue = [7.668, 132.025]\nclass = Attack", fillcolor="#44a3e7"] ;
249 -> 250 ;
251 [label="933130 <= 0.5\nentropy = 0.35\nsamples = 33\nvalue = [7.668, 109.064]\nclass = Attack", fillcolor="#47a4e7"] ;
250 -> 251 ;
252 [label="920220 <= 0.5\nentropy = 0.363\nsamples = 32\nvalue = [7.668, 103.324]\nclass = Attack", fillcolor="#48a4e7"] ;
251 -> 252 ;
253 [label="entropy = 0.376\nsamples = 31\nvalue = [7.668, 97.584]\nclass = Attack", fillcolor="#49a5e7"] ;
252 -> 253 ;
254 [label="entropy = 0.0\nsamples = 1\nvalue = [0.0, 5.74]\nclass = Attack", fillcolor="#399de5"] ;
252 -> 254 ;
255 [label="entropy = 0.0\nsamples = 1\nvalue = [0.0, 5.74]\nclass = Attack", fillcolor="#399de5"] ;
251 -> 255 ;
256 [label="entropy = 0.0\nsamples = 4\nvalue = [0.0, 22.961]\nclass = Attack", fillcolor="#399de5"] ;
250 -> 256 ;
257 [label="entropy = 0.0\nsamples = 5\nvalue = [0.0, 28.701]\nclass = Attack", fillcolor="#399de5"] ;
249 -> 257 ;
258 [label="entropy = 0.0\nsamples = 7\nvalue = [0.0, 40.182]\nclass = Attack", fillcolor="#399de5"] ;
248 -> 258 ;
259 [label="entropy = -0.0\nsamples = 12\nvalue = [0.0, 68.883]\nclass = Attack", fillcolor="#399de5"] ;
247 -> 259 ;
260 [label="entropy = 0.0\nsamples = 14\nvalue = [0.0, 80.363]\nclass = Attack", fillcolor="#399de5"] ;
246 -> 260 ;
261 [label="entropy = 0.0\nsamples = 14\nvalue = [0.0, 80.363]\nclass = Attack", fillcolor="#399de5"] ;
245 -> 261 ;
262 [label="entropy = 0.0\nsamples = 18\nvalue = [0.0, 103.324]\nclass = Attack", fillcolor="#399de5"] ;
244 -> 262 ;
263 [label="entropy = 0.0\nsamples = 53\nvalue = [0.0, 304.232]\nclass = Attack", fillcolor="#399de5"] ;
243 -> 263 ;
264 [label="931130 <= 0.5\nentropy = 0.082\nsamples = 247\nvalue = [13.145, 1280.072]\nclass = Attack", fillcolor="#3b9ee5"] ;
118 -> 264 ;
265 [label="921180 <= 0.5\nentropy = 0.053\nsamples = 237\nvalue = [7.668, 1280.072]\nclass = Attack", fillcolor="#3a9ee5"] ;
264 -> 265 ;
266 [label="920350 <= 0.5\nentropy = 0.04\nsamples = 233\nvalue = [5.477, 1280.072]\nclass = Attack", fillcolor="#3a9de5"] ;
265 -> 266 ;
267 [label="942430 <= 0.5\nentropy = 0.033\nsamples = 231\nvalue = [4.382, 1280.072]\nclass = Attack", fillcolor="#3a9de5"] ;
266 -> 267 ;
268 [label="942400 <= 0.5\nentropy = 0.022\nsamples = 224\nvalue = [2.739, 1257.111]\nclass = Attack", fillcolor="#399de5"] ;
267 -> 268 ;
269 [label="941160 <= 0.5\nentropy = 0.037\nsamples = 125\nvalue = [2.739, 688.828]\nclass = Attack", fillcolor="#3a9de5"] ;
268 -> 269 ;
270 [label="942511 <= 0.5\nentropy = 0.059\nsamples = 75\nvalue = [2.739, 401.816]\nclass = Attack", fillcolor="#3a9ee5"] ;
269 -> 270 ;
271 [label="942432 <= 0.5\nentropy = 0.139\nsamples = 29\nvalue = [2.739, 137.766]\nclass = Attack", fillcolor="#3d9fe6"] ;
270 -> 271 ;
272 [label="entropy = 0.0\nsamples = 22\nvalue = [0.0, 126.285]\nclass = Attack", fillcolor="#399de5"] ;
271 -> 272 ;
273 [label="921130 <= 0.5\nentropy = 0.707\nsamples = 7\nvalue = [2.739, 11.48]\nclass = Attack", fillcolor="#68b4eb"] ;
271 -> 273 ;
274 [label="entropy = 0.908\nsamples = 6\nvalue = [2.739, 5.74]\nclass = Attack", fillcolor="#97ccf1"] ;
273 -> 274 ;
275 [label="entropy = 0.0\nsamples = 1\nvalue = [0.0, 5.74]\nclass = Attack", fillcolor="#399de5"] ;
273 -> 275 ;
276 [label="entropy = 0.0\nsamples = 46\nvalue = [0.0, 264.051]\nclass = Attack", fillcolor="#399de5"] ;
270 -> 276 ;
277 [label="entropy = 0.0\nsamples = 50\nvalue = [0.0, 287.012]\nclass = Attack", fillcolor="#399de5"] ;
269 -> 277 ;
278 [label="entropy = 0.0\nsamples = 99\nvalue = [0.0, 568.283]\nclass = Attack", fillcolor="#399de5"] ;
268 -> 278 ;
279 [label="921130 <= 0.5\nentropy = 0.354\nsamples = 7\nvalue = [1.643, 22.961]\nclass = Attack", fillcolor="#47a4e7"] ;
267 -> 279 ;
280 [label="932110 <= 0.5\nentropy = 0.544\nsamples = 5\nvalue = [1.643, 11.48]\nclass = Attack", fillcolor="#55abe9"] ;
279 -> 280 ;
281 [label="entropy = -0.0\nsamples = 3\nvalue = [1.643, 0.0]\nclass = Normal", fillcolor="#e58139"] ;
280 -> 281 ;
282 [label="entropy = 0.0\nsamples = 2\nvalue = [0.0, 11.48]\nclass = Attack", fillcolor="#399de5"] ;
280 -> 282 ;
283 [label="entropy = 0.0\nsamples = 2\nvalue = [0.0, 11.48]\nclass = Attack", fillcolor="#399de5"] ;
279 -> 283 ;
284 [label="entropy = 0.0\nsamples = 2\nvalue = [1.095, 0.0]\nclass = Normal", fillcolor="#e58139"] ;
266 -> 284 ;
285 [label="entropy = 0.0\nsamples = 4\nvalue = [2.191, 0.0]\nclass = Normal", fillcolor="#e58139"] ;
265 -> 285 ;
286 [label="entropy = 0.0\nsamples = 10\nvalue = [5.477, 0.0]\nclass = Normal", fillcolor="#e58139"] ;
264 -> 286 ;
287 [label="931130 <= 0.5\nentropy = 0.388\nsamples = 1163\nvalue = [295.215, 3581.906]\nclass = Attack", fillcolor="#49a5e7"] ;
117 -> 287 ;
288 [label="921180 <= 0.5\nentropy = 0.067\nsamples = 677\nvalue = [29.029, 3581.906]\nclass = Attack", fillcolor="#3b9ee5"] ;
287 -> 288 ;
289 [label="942340 <= 0.5\nentropy = 0.053\nsamples = 664\nvalue = [21.908, 3581.906]\nclass = Attack", fillcolor="#3a9ee5"] ;
288 -> 289 ;
290 [label="941120 <= 0.5\nentropy = 0.027\nsamples = 625\nvalue = [9.311, 3490.062]\nclass = Attack", fillcolor="#3a9de5"] ;
289 -> 290 ;
291 [label="942440 <= 0.5\nentropy = 0.02\nsamples = 620\nvalue = [6.572, 3490.062]\nclass = Attack", fillcolor="#399de5"] ;
290 -> 291 ;
292 [label="942490 <= 0.5\nentropy = 0.052\nsamples = 207\nvalue = [6.572, 1119.346]\nclass = Attack", fillcolor="#3a9ee5"] ;
291 -> 292 ;
293 [label="942390 <= 0.5\nentropy = 0.034\nsamples = 196\nvalue = [3.834, 1084.904]\nclass = Attack", fillcolor="#3a9de5"] ;
292 -> 293 ;
294 [label="941100 <= 0.5\nentropy = 0.03\nsamples = 195\nvalue = [3.286, 1084.904]\nclass = Attack", fillcolor="#3a9de5"] ;
293 -> 294 ;
295 [label="932140 <= 0.5\nentropy = 0.055\nsamples = 96\nvalue = [3.286, 516.621]\nclass = Attack", fillcolor="#3a9ee5"] ;
294 -> 295 ;
296 [label="920300 <= 0.5\nentropy = 0.183\nsamples = 26\nvalue = [3.286, 114.805]\nclass = Attack", fillcolor="#3fa0e6"] ;
295 -> 296 ;
297 [label="942430 <= 0.5\nentropy = 0.304\nsamples = 16\nvalue = [3.286, 57.402]\nclass = Attack", fillcolor="#44a3e6"] ;
296 -> 297 ;
298 [label="942432 <= 0.5\nentropy = 0.146\nsamples = 11\nvalue = [1.095, 51.662]\nclass = Attack", fillcolor="#3d9fe6"] ;
297 -> 298 ;
299 [label="930120 <= 0.5\nentropy = 0.227\nsamples = 7\nvalue = [1.095, 28.701]\nclass = Attack", fillcolor="#41a1e6"] ;
298 -> 299 ;
300 [label="entropy = 0.635\nsamples = 3\nvalue = [1.095, 5.74]\nclass = Attack", fillcolor="#5fb0ea"] ;
299 -> 300 ;
301 [label="entropy = 0.0\nsamples = 4\nvalue = [0.0, 22.961]\nclass = Attack", fillcolor="#399de5"] ;
299 -> 301 ;
302 [label="entropy = 0.0\nsamples = 4\nvalue = [0.0, 22.961]\nclass = Attack", fillcolor="#399de5"] ;
298 -> 302 ;
303 [label="941380 <= 0.5\nentropy = 0.85\nsamples = 5\nvalue = [2.191, 5.74]\nclass = Attack", fillcolor="#85c2ef"] ;
297 -> 303 ;
304 [label="entropy = -0.0\nsamples = 4\nvalue = [2.191, 0.0]\nclass = Normal", fillcolor="#e58139"] ;
303 -> 304 ;
305 [label="entropy = 0.0\nsamples = 1\nvalue = [0.0, 5.74]\nclass = Attack", fillcolor="#399de5"] ;
303 -> 305 ;
306 [label="entropy = 0.0\nsamples = 10\nvalue = [0.0, 57.402]\nclass = Attack", fillcolor="#399de5"] ;
296 -> 306 ;
307 [label="entropy = 0.0\nsamples = 70\nvalue = [0.0, 401.816]\nclass = Attack", fillcolor="#399de5"] ;
295 -> 307 ;
308 [label="entropy = 0.0\nsamples = 99\nvalue = [0.0, 568.283]\nclass = Attack", fillcolor="#399de5"] ;
294 -> 308 ;
309 [label="entropy = 0.0\nsamples = 1\nvalue = [0.548, 0.0]\nclass = Normal", fillcolor="#e58139"] ;
293 -> 309 ;
310 [label="932140 <= 0.5\nentropy = 0.379\nsamples = 11\nvalue = [2.739, 34.441]\nclass = Attack", fillcolor="#49a5e7"] ;
292 -> 310 ;
311 [label="entropy = 0.0\nsamples = 5\nvalue = [2.739, 0.0]\nclass = Normal", fillcolor="#e58139"] ;
310 -> 311 ;
312 [label="entropy = -0.0\nsamples = 6\nvalue = [0.0, 34.441]\nclass = Attack", fillcolor="#399de5"] ;
310 -> 312 ;
313 [label="entropy = 0.0\nsamples = 413\nvalue = [0.0, 2370.716]\nclass = Attack", fillcolor="#399de5"] ;
291 -> 313 ;
314 [label="entropy = 0.0\nsamples = 5\nvalue = [2.739, 0.0]\nclass = Normal", fillcolor="#e58139"] ;
290 -> 314 ;
315 [label="942200 <= 0.5\nentropy = 0.531\nsamples = 39\nvalue = [12.597, 91.844]\nclass = Attack", fillcolor="#54aae9"] ;
289 -> 315 ;
316 [label="entropy = 0.0\nsamples = 16\nvalue = [0.0, 91.844]\nclass = Attack", fillcolor="#399de5"] ;
315 -> 316 ;
317 [label="entropy = 0.0\nsamples = 23\nvalue = [12.597, 0.0]\nclass = Normal", fillcolor="#e58139"] ;
315 -> 317 ;
318 [label="entropy = 0.0\nsamples = 13\nvalue = [7.12, 0.0]\nclass = Normal", fillcolor="#e58139"] ;
288 -> 318 ;
319 [label="entropy = 0.0\nsamples = 486\nvalue = [266.186, 0.0]\nclass = Normal", fillcolor="#e58139"] ;
287 -> 319 ;
320 [label="931130 <= 0.5\nentropy = 0.228\nsamples = 966\nvalue = [151.715, 3955.021]\nclass = Attack", fillcolor="#41a1e6"] ;
116 -> 320 ;
321 [label="932115 <= 0.5\nentropy = 0.091\nsamples = 774\nvalue = [46.555, 3955.021]\nclass = Attack", fillcolor="#3b9ee5"] ;
320 -> 321 ;
322 [label="932190 <= 0.5\nentropy = 0.057\nsamples = 737\nvalue = [26.29, 3955.021]\nclass = Attack", fillcolor="#3a9ee5"] ;
321 -> 322 ;
323 [label="942430 <= 0.5\nentropy = 0.041\nsamples = 721\nvalue = [17.527, 3955.021]\nclass = Attack", fillcolor="#3a9de5"] ;
322 -> 323 ;
324 [label="entropy = 0.0\nsamples = 613\nvalue = [0.0, 3518.763]\nclass = Attack", fillcolor="#399de5"] ;
323 -> 324 ;
325 [label="941160 <= 0.5\nentropy = 0.236\nsamples = 108\nvalue = [17.527, 436.258]\nclass = Attack", fillcolor="#41a1e6"] ;
323 -> 325 ;
326 [label="entropy = 0.0\nsamples = 32\nvalue = [17.527, 0.0]\nclass = Normal", fillcolor="#e58139"] ;
325 -> 326 ;
327 [label="entropy = 0.0\nsamples = 76\nvalue = [0.0, 436.258]\nclass = Attack", fillcolor="#399de5"] ;
325 -> 327 ;
328 [label="entropy = 0.0\nsamples = 16\nvalue = [8.763, 0.0]\nclass = Normal", fillcolor="#e58139"] ;
322 -> 328 ;
329 [label="entropy = 0.0\nsamples = 37\nvalue = [20.265, 0.0]\nclass = Normal", fillcolor="#e58139"] ;
321 -> 329 ;
330 [label="entropy = 0.0\nsamples = 192\nvalue = [105.16, 0.0]\nclass = Normal", fillcolor="#e58139"] ;
320 -> 330 ;
331 [label="942432 <= 0.5\nentropy = 0.002\nsamples = 1456\nvalue = [1.095, 8346.3]\nclass = Attack", fillcolor="#399de5"] ;
115 -> 331 ;
332 [label="entropy = 0.001\nsamples = 1455\nvalue = [0.548, 8346.3]\nclass = Attack", fillcolor="#399de5"] ;
331 -> 332 ;
333 [label="entropy = -0.0\nsamples = 1\nvalue = [0.548, 0.0]\nclass = Normal", fillcolor="#e58139"] ;
331 -> 333 ;
334 [label="920300 <= 0.5\nentropy = 0.014\nsamples = 76181\nvalue = [41719.998, 51.662]\nclass = Normal", fillcolor="#e58139"] ;
0 -> 334 [labeldistance=2.5, labelangle=-45, headlabel="False"] ;
335 [label="920320 <= 0.5\nentropy = 0.004\nsamples = 76174\nvalue = [41719.998, 11.48]\nclass = Normal", fillcolor="#e58139"] ;
334 -> 335 ;
336 [label="entropy = 0.0\nsamples = 76172\nvalue = [41719.998, 0.0]\nclass = Normal", fillcolor="#e58139"] ;
335 -> 336 ;
337 [label="entropy = 0.0\nsamples = 2\nvalue = [0.0, 11.48]\nclass = Attack", fillcolor="#399de5"] ;
335 -> 337 ;
338 [label="entropy = 0.0\nsamples = 7\nvalue = [0.0, 40.182]\nclass = Attack", fillcolor="#399de5"] ;
334 -> 338 ;
}