digraph Tree {
node [shape=box, style="filled", color="black"] ;
0 [label="942421 <= 0.5\nentropy = 1.0\nsamples = 182792\nvalue = [91396.0, 91396.0]\nclass = Normal", fillcolor="#ffffff"] ;
1 [label="request_method_GET <= 0.5\nentropy = 0.936\nsamples = 106611\nvalue = [49676.002, 91344.338]\nclass = Attack", fillcolor="#a5d2f3"] ;
0 -> 1 [labeldistance=2.5, labelangle=45, headlabel="True"] ;
2 [label="931130 <= 0.5\nentropy = 0.684\nsamples = 26091\nvalue = [9998.406, 44980.471]\nclass = Attack", fillcolor="#65b3eb"] ;
1 -> 2 ;
3 [label="920230 <= 0.5\nentropy = 0.615\nsamples = 22550\nvalue = [8059.52, 44974.731]\nclass = Attack", fillcolor="#5cafea"] ;
2 -> 3 ;
4 [label="request_method_OPTIONS <= 0.5\nentropy = 0.657\nsamples = 21562\nvalue = [8050.209, 39400.964]\nclass = Attack", fillcolor="#61b1ea"] ;
3 -> 4 ;
5 [label="942340 <= 0.5\nentropy = 0.64\nsamples = 20808\nvalue = [7637.238, 39400.964]\nclass = Attack", fillcolor="#5fb0ea"] ;
4 -> 5 ;
6 [label="(...)", fillcolor="#C0C0C0"] ;
5 -> 6 ;
97 [label="(...)", fillcolor="#C0C0C0"] ;
5 -> 97 ;
102 [label="entropy = 0.0\nsamples = 754\nvalue = [412.972, 0.0]\nclass = Normal", fillcolor="#e58139"] ;
4 -> 102 ;
103 [label="932190 <= 0.5\nentropy = 0.018\nsamples = 988\nvalue = [9.311, 5573.767]\nclass = Attack", fillcolor="#399de5"] ;
3 -> 103 ;
104 [label="entropy = 0.0\nsamples = 971\nvalue = [0.0, 5573.767]\nclass = Attack", fillcolor="#399de5"] ;
103 -> 104 ;
105 [label="entropy = -0.0\nsamples = 17\nvalue = [9.311, 0.0]\nclass = Normal", fillcolor="#e58139"] ;
103 -> 105 ;
106 [label="942432 <= 0.5\nentropy = 0.029\nsamples = 3541\nvalue = [1938.886, 5.74]\nclass = Normal", fillcolor="#e5813a"] ;
2 -> 106 ;
107 [label="950100 <= 0.5\nentropy = 0.038\nsamples = 2589\nvalue = [1417.468, 5.74]\nclass = Normal", fillcolor="#e5823a"] ;
106 -> 107 ;
108 [label="request_method_OPTIONS <= 0.5\nentropy = 0.038\nsamples = 2546\nvalue = [1393.916, 5.74]\nclass = Normal", fillcolor="#e5823a"] ;
107 -> 108 ;
109 [label="(...)", fillcolor="#C0C0C0"] ;
108 -> 109 ;
112 [label="(...)", fillcolor="#C0C0C0"] ;
108 -> 112 ;
113 [label="entropy = 0.0\nsamples = 43\nvalue = [23.551, 0.0]\nclass = Normal", fillcolor="#e58139"] ;
107 -> 113 ;
114 [label="entropy = 0.0\nsamples = 952\nvalue = [521.418, 0.0]\nclass = Normal", fillcolor="#e58139"] ;
106 -> 114 ;
115 [label="920440 <= 0.5\nentropy = 0.996\nsamples = 80520\nvalue = [39677.596, 46363.867]\nclass = Attack", fillcolor="#e2f1fb"] ;
1 -> 115 ;
116 [label="920230 <= 0.5\nentropy = 1.0\nsamples = 79064\nvalue = [39676.5, 38017.567]\nclass = Normal", fillcolor="#fefaf7"] ;
115 -> 116 ;
117 [label="942460 <= 0.5\nentropy = 0.996\nsamples = 78098\nvalue = [39524.785, 34062.546]\nclass = Normal", fillcolor="#fbeee4"] ;
116 -> 117 ;
118 [label="942130 <= 0.5\nentropy = 0.989\nsamples = 76935\nvalue = [39229.571, 30480.641]\nclass = Normal", fillcolor="#f9e3d3"] ;
117 -> 118 ;
119 [label="(...)", fillcolor="#C0C0C0"] ;
118 -> 119 ;
264 [label="(...)", fillcolor="#C0C0C0"] ;
118 -> 264 ;
287 [label="931130 <= 0.5\nentropy = 0.388\nsamples = 1163\nvalue = [295.215, 3581.906]\nclass = Attack", fillcolor="#49a5e7"] ;
117 -> 287 ;
288 [label="(...)", fillcolor="#C0C0C0"] ;
287 -> 288 ;
319 [label="(...)", fillcolor="#C0C0C0"] ;
287 -> 319 ;
320 [label="931130 <= 0.5\nentropy = 0.228\nsamples = 966\nvalue = [151.715, 3955.021]\nclass = Attack", fillcolor="#41a1e6"] ;
116 -> 320 ;
321 [label="932115 <= 0.5\nentropy = 0.091\nsamples = 774\nvalue = [46.555, 3955.021]\nclass = Attack", fillcolor="#3b9ee5"] ;
320 -> 321 ;
322 [label="(...)", fillcolor="#C0C0C0"] ;
321 -> 322 ;
329 [label="(...)", fillcolor="#C0C0C0"] ;
321 -> 329 ;
330 [label="entropy = 0.0\nsamples = 192\nvalue = [105.16, 0.0]\nclass = Normal", fillcolor="#e58139"] ;
320 -> 330 ;
331 [label="942432 <= 0.5\nentropy = 0.002\nsamples = 1456\nvalue = [1.095, 8346.3]\nclass = Attack", fillcolor="#399de5"] ;
115 -> 331 ;
332 [label="entropy = 0.001\nsamples = 1455\nvalue = [0.548, 8346.3]\nclass = Attack", fillcolor="#399de5"] ;
331 -> 332 ;
333 [label="entropy = -0.0\nsamples = 1\nvalue = [0.548, 0.0]\nclass = Normal", fillcolor="#e58139"] ;
331 -> 333 ;
334 [label="920300 <= 0.5\nentropy = 0.014\nsamples = 76181\nvalue = [41719.998, 51.662]\nclass = Normal", fillcolor="#e58139"] ;
0 -> 334 [labeldistance=2.5, labelangle=-45, headlabel="False"] ;
335 [label="920320 <= 0.5\nentropy = 0.004\nsamples = 76174\nvalue = [41719.998, 11.48]\nclass = Normal", fillcolor="#e58139"] ;
334 -> 335 ;
336 [label="entropy = 0.0\nsamples = 76172\nvalue = [41719.998, 0.0]\nclass = Normal", fillcolor="#e58139"] ;
335 -> 336 ;
337 [label="entropy = 0.0\nsamples = 2\nvalue = [0.0, 11.48]\nclass = Attack", fillcolor="#399de5"] ;
335 -> 337 ;
338 [label="entropy = 0.0\nsamples = 7\nvalue = [0.0, 40.182]\nclass = Attack", fillcolor="#399de5"] ;
334 -> 338 ;
}