digraph Tree {
node [shape=box, style="filled", color="black"] ;
0 [label="942421 <= 0.5\nentropy = 0.65\nsamples = 141158\nvalue = [117646, 23512]\nclass = Normal", fillcolor="#ea9a61"] ;
1 [label="920273 <= 0.5\nentropy = 0.84\nsamples = 87431\nvalue = [63931, 23500]\nclass = Normal", fillcolor="#efaf82"] ;
0 -> 1 [labeldistance=2.5, labelangle=45, headlabel="True"] ;
2 [label="920440 <= 0.5\nentropy = 0.619\nsamples = 53155\nvalue = [44995, 8160]\nclass = Normal", fillcolor="#ea985d"] ;
1 -> 2 ;
3 [label="request_method_POST <= 0.5\nentropy = 0.52\nsamples = 50943\nvalue = [44992, 5951]\nclass = Normal", fillcolor="#e89253"] ;
2 -> 3 ;
4 [label="920500 <= 0.5\nentropy = 0.442\nsamples = 46895\nvalue = [42599, 4296]\nclass = Normal", fillcolor="#e88e4d"] ;
3 -> 4 ;
5 [label="request_method_PUT <= 0.5\nentropy = 0.431\nsamples = 46735\nvalue = [42599, 4136]\nclass = Normal", fillcolor="#e88d4c"] ;
4 -> 5 ;
6 [label="(...)", fillcolor="#C0C0C0"] ;
5 -> 6 ;
19 [label="(...)", fillcolor="#C0C0C0"] ;
5 -> 19 ;
20 [label="entropy = 0.0\nsamples = 160\nvalue = [0, 160]\nclass = Attack", fillcolor="#399de5"] ;
4 -> 20 ;
21 [label="944130 <= 0.5\nentropy = 0.976\nsamples = 4048\nvalue = [2393, 1655]\nclass = Normal", fillcolor="#f7d8c2"] ;
3 -> 21 ;
22 [label="944300 <= 0.5\nentropy = 0.952\nsamples = 3807\nvalue = [2393, 1414]\nclass = Normal", fillcolor="#f4cbae"] ;
21 -> 22 ;
23 [label="(...)", fillcolor="#C0C0C0"] ;
22 -> 23 ;
30 [label="(...)", fillcolor="#C0C0C0"] ;
22 -> 30 ;
31 [label="entropy = 0.0\nsamples = 241\nvalue = [0, 241]\nclass = Attack", fillcolor="#399de5"] ;
21 -> 31 ;
32 [label="entropy = 0.015\nsamples = 2212\nvalue = [3, 2209]\nclass = Attack", fillcolor="#399de5"] ;
2 -> 32 ;
33 [label="931130 <= 0.5\nentropy = 0.992\nsamples = 34276\nvalue = [18936, 15340]\nclass = Normal", fillcolor="#fae7d9"] ;
1 -> 33 ;
34 [label="920230 <= 0.5\nentropy = 1.0\nsamples = 30587\nvalue = [15279, 15308]\nclass = Attack", fillcolor="#ffffff"] ;
33 -> 34 ;
35 [label="942460 <= 0.5\nentropy = 0.995\nsamples = 28072\nvalue = [15233, 12839]\nclass = Normal", fillcolor="#fbebe0"] ;
34 -> 35 ;
36 [label="942130 <= 0.5\nentropy = 0.978\nsamples = 25744\nvalue = [15132, 10612]\nclass = Normal", fillcolor="#f7d9c4"] ;
35 -> 36 ;
37 [label="(...)", fillcolor="#C0C0C0"] ;
36 -> 37 ;
90 [label="(...)", fillcolor="#C0C0C0"] ;
36 -> 90 ;
99 [label="942340 <= 0.5\nentropy = 0.258\nsamples = 2328\nvalue = [101, 2227]\nclass = Attack", fillcolor="#42a1e6"] ;
35 -> 99 ;
100 [label="(...)", fillcolor="#C0C0C0"] ;
99 -> 100 ;
115 [label="(...)", fillcolor="#C0C0C0"] ;
99 -> 115 ;
116 [label="942430 <= 0.5\nentropy = 0.132\nsamples = 2515\nvalue = [46, 2469]\nclass = Attack", fillcolor="#3d9fe5"] ;
34 -> 116 ;
117 [label="942431 <= 0.5\nentropy = 0.015\nsamples = 2176\nvalue = [3, 2173]\nclass = Attack", fillcolor="#399de5"] ;
116 -> 117 ;
118 [label="(...)", fillcolor="#C0C0C0"] ;
117 -> 118 ;
119 [label="(...)", fillcolor="#C0C0C0"] ;
117 -> 119 ;
124 [label="941160 <= 0.5\nentropy = 0.549\nsamples = 339\nvalue = [43, 296]\nclass = Attack", fillcolor="#56abe9"] ;
116 -> 124 ;
125 [label="(...)", fillcolor="#C0C0C0"] ;
124 -> 125 ;
126 [label="(...)", fillcolor="#C0C0C0"] ;
124 -> 126 ;
127 [label="request_method_GET <= 0.5\nentropy = 0.072\nsamples = 3689\nvalue = [3657, 32]\nclass = Normal", fillcolor="#e5823b"] ;
33 -> 127 ;
128 [label="942432 <= 0.5\nentropy = 0.009\nsamples = 2468\nvalue = [2466, 2]\nclass = Normal", fillcolor="#e58139"] ;
127 -> 128 ;
129 [label="entropy = 0.013\nsamples = 1797\nvalue = [1795, 2]\nclass = Normal", fillcolor="#e58139"] ;
128 -> 129 ;
130 [label="entropy = 0.0\nsamples = 671\nvalue = [671, 0]\nclass = Normal", fillcolor="#e58139"] ;
128 -> 130 ;
131 [label="942432 <= 0.5\nentropy = 0.166\nsamples = 1221\nvalue = [1191, 30]\nclass = Normal", fillcolor="#e6843e"] ;
127 -> 131 ;
132 [label="entropy = 0.801\nsamples = 82\nvalue = [62, 20]\nclass = Normal", fillcolor="#edaa79"] ;
131 -> 132 ;
133 [label="942460 <= 0.5\nentropy = 0.073\nsamples = 1139\nvalue = [1129, 10]\nclass = Normal", fillcolor="#e5823b"] ;
131 -> 133 ;
134 [label="(...)", fillcolor="#C0C0C0"] ;
133 -> 134 ;
143 [label="(...)", fillcolor="#C0C0C0"] ;
133 -> 143 ;
144 [label="942440 <= 0.5\nentropy = 0.003\nsamples = 53727\nvalue = [53715, 12]\nclass = Normal", fillcolor="#e58139"] ;
0 -> 144 [labeldistance=2.5, labelangle=-45, headlabel="False"] ;
145 [label="942432 <= 0.5\nentropy = 0.007\nsamples = 21562\nvalue = [21550, 12]\nclass = Normal", fillcolor="#e58139"] ;
144 -> 145 ;
146 [label="942420 <= 0.5\nentropy = 0.018\nsamples = 7257\nvalue = [7245, 12]\nclass = Normal", fillcolor="#e58139"] ;
145 -> 146 ;
147 [label="request_method_GET <= 0.5\nentropy = 0.009\nsamples = 5572\nvalue = [5568, 4]\nclass = Normal", fillcolor="#e58139"] ;
146 -> 147 ;
148 [label="entropy = 0.0\nsamples = 1879\nvalue = [1879, 0]\nclass = Normal", fillcolor="#e58139"] ;
147 -> 148 ;
149 [label="920273 <= 0.5\nentropy = 0.012\nsamples = 3693\nvalue = [3689, 4]\nclass = Normal", fillcolor="#e58139"] ;
147 -> 149 ;
150 [label="(...)", fillcolor="#C0C0C0"] ;
149 -> 150 ;
157 [label="(...)", fillcolor="#C0C0C0"] ;
149 -> 157 ;
158 [label="942490 <= 0.5\nentropy = 0.043\nsamples = 1685\nvalue = [1677, 8]\nclass = Normal", fillcolor="#e5823a"] ;
146 -> 158 ;
159 [label="920273 <= 0.5\nentropy = 0.12\nsamples = 491\nvalue = [483, 8]\nclass = Normal", fillcolor="#e5833c"] ;
158 -> 159 ;
160 [label="(...)", fillcolor="#C0C0C0"] ;
159 -> 160 ;
163 [label="(...)", fillcolor="#C0C0C0"] ;
159 -> 163 ;
164 [label="entropy = 0.0\nsamples = 1194\nvalue = [1194, 0]\nclass = Normal", fillcolor="#e58139"] ;
158 -> 164 ;
165 [label="entropy = 0.0\nsamples = 14305\nvalue = [14305, 0]\nclass = Normal", fillcolor="#e58139"] ;
145 -> 165 ;
166 [label="entropy = 0.0\nsamples = 32165\nvalue = [32165, 0]\nclass = Normal", fillcolor="#e58139"] ;
144 -> 166 ;
}